digraph Tree {
node [shape=box, style="filled, rounded", color="black", fontname=helvetica] ;
edge [fontname=helvetica] ;
0 [label="petal length (cm) <= 2.45\nentropy = 1.585\nsamples = 150\nvalue = [50, 50, 50]\nclass = setosa", fillcolor="#ffffff"] ;
1 [label="entropy = 0.0\nsamples = 50\nvalue = [50, 0, 0]\nclass = setosa", fillcolor="#e58139"] ;
0 -> 1 [labeldistance=2.5, labelangle=45, headlabel="True"] ;
2 [label="petal width (cm) <= 1.75\nentropy = 1.0\nsamples = 100\nvalue = [0, 50, 50]\nclass = versicolor", fillcolor="#ffffff"] ;
0 -> 2 [labeldistance=2.5, labelangle=-45, headlabel="False"] ;
3 [label="petal length (cm) <= 4.45\nentropy = 0.445\nsamples = 54\nvalue = [0, 49, 5]\nclass = versicolor", fillcolor="#4de88e"] ;
2 -> 3 ;
4 [label="entropy = 0.0\nsamples = 29\nvalue = [0, 29, 0]\nclass = versicolor", fillcolor="#39e581"] ;
3 -> 4 ;
5 [label="sepal width (cm) <= 2.85\nentropy = 0.722\nsamples = 25\nvalue = [0, 20, 5]\nclass = versicolor", fillcolor="#6aeca0"] ;
3 -> 5 ;
6 [label="entropy = 0.946\nsamples = 11\nvalue = [0, 7, 4]\nclass = versicolor", fillcolor="#aaf4c9"] ;
5 -> 6 ;
7 [label="entropy = 0.371\nsamples = 14\nvalue = [0, 13, 1]\nclass = versicolor", fillcolor="#48e78b"] ;
5 -> 7 ;
8 [label="sepal length (cm) <= 6.25\nentropy = 0.151\nsamples = 46\nvalue = [0, 1, 45]\nclass = virginica", fillcolor="#843de6"] ;
2 -> 8 ;
9 [label="entropy = 0.439\nsamples = 11\nvalue = [0, 1, 10]\nclass = virginica", fillcolor="#8e4de8"] ;
8 -> 9 ;
10 [label="entropy = 0.0\nsamples = 35\nvalue = [0, 0, 35]\nclass = virginica", fillcolor="#8139e5"] ;
8 -> 10 ;
}